<?xml version="1.0"?>
<opencv_storage>
<stage11>
  <maxWeakCount>6</maxWeakCount>
  <stageThreshold>-2.1731581687927246e+00</stageThreshold>
  <weakClassifiers>
    <_>
      <internalNodes>
        0 -1 42030 4.7798880934715271e-01</internalNodes>
      <leafValues>
        -9.4944304227828979e-01 1.</leafValues></_>
    <_>
      <internalNodes>
        0 -1 96835 -8.3627104759216309e-03</internalNodes>
      <leafValues>
        -1.9447822868824005e-01 -8.2645297050476074e-01</leafValues></_>
    <_>
      <internalNodes>
        0 -1 25625 -2.8488843236118555e-04</internalNodes>
      <leafValues>
        6.5653100609779358e-02 -7.9592102766036987e-01</leafValues></_>
    <_>
      <internalNodes>
        0 -1 162051 1.2330049648880959e-03</internalNodes>
      <leafValues>
        1.5236811339855194e-01 -8.3448988199234009e-01</leafValues></_>
    <_>
      <internalNodes>
        0 -1 13473 -4.8807146959006786e-04</internalNodes>
      <leafValues>
        -1. 1.5185877680778503e-01</leafValues></_>
    <_>
      <internalNodes>
        0 -1 131089 5.8412020734976977e-05</internalNodes>
      <leafValues>
        -5.3754281997680664e-01 2.9363784193992615e-01</leafValues></_></weakClassifiers></stage11>
</opencv_storage>
