<?xml version="1.0"?>
<opencv_storage>
<stage6>
  <maxWeakCount>6</maxWeakCount>
  <stageThreshold>-2.0871312618255615e+00</stageThreshold>
  <weakClassifiers>
    <_>
      <internalNodes>
        0 -1 32993 1.4018565416336060e-01</internalNodes>
      <leafValues>
        -9.5109397172927856e-01 7.1428573131561279e-01</leafValues></_>
    <_>
      <internalNodes>
        0 -1 120677 -2.0720591768622398e-02</internalNodes>
      <leafValues>
        -9.9892847239971161e-02 -8.2520633935928345e-01</leafValues></_>
    <_>
      <internalNodes>
        0 -1 90154 2.5014586281031370e-03</internalNodes>
      <leafValues>
        -8.4171032905578613e-01 1.0768093168735504e-01</leafValues></_>
    <_>
      <internalNodes>
        0 -1 139235 1.5303636901080608e-03</internalNodes>
      <leafValues>
        -9.1852283477783203e-01 1.7503827810287476e-01</leafValues></_>
    <_>
      <internalNodes>
        0 -1 7455 -1.3748693745583296e-03</internalNodes>
      <leafValues>
        2.9111665487289429e-01 -7.5296109914779663e-01</leafValues></_>
    <_>
      <internalNodes>
        0 -1 13632 -3.5113369813188910e-04</internalNodes>
      <leafValues>
        -9.6715182065963745e-01 2.0889429748058319e-01</leafValues></_></weakClassifiers></stage6>
</opencv_storage>
