<?xml version="1.0"?>
<opencv_storage>
<stage12>
  <maxWeakCount>5</maxWeakCount>
  <stageThreshold>-2.3396413326263428e+00</stageThreshold>
  <weakClassifiers>
    <_>
      <internalNodes>
        0 -1 99221 -4.0115419030189514e-01</internalNodes>
      <leafValues>
        6.6666668653488159e-01 -9.5025730133056641e-01</leafValues></_>
    <_>
      <internalNodes>
        0 -1 151270 -7.9263010993599892e-03</internalNodes>
      <leafValues>
        -2.7387025952339172e-01 -8.3667272329330444e-01</leafValues></_>
    <_>
      <internalNodes>
        0 -1 138287 4.6392362564802170e-03</internalNodes>
      <leafValues>
        -4.6146228909492493e-01 4.2762723565101624e-01</leafValues></_>
    <_>
      <internalNodes>
        0 -1 49883 -2.2657718509435654e-03</internalNodes>
      <leafValues>
        -9.2585289478302002e-01 1.9492943584918976e-01</leafValues></_>
    <_>
      <internalNodes>
        0 -1 99052 5.2995310397818685e-04</internalNodes>
      <leafValues>
        -8.4898090362548828e-01 2.2097747027873993e-01</leafValues></_></weakClassifiers></stage12>
</opencv_storage>
