<?xml version="1.0"?>
<opencv_storage>
<stage8>
  <maxWeakCount>5</maxWeakCount>
  <stageThreshold>-2.1496593952178955e+00</stageThreshold>
  <weakClassifiers>
    <_>
      <internalNodes>
        0 -1 97234 5.1582764834165573e-02</internalNodes>
      <leafValues>
        -9.5025730133056641e-01 6.6666668653488159e-01</leafValues></_>
    <_>
      <internalNodes>
        0 -1 133438 -1.3724148273468018e-02</internalNodes>
      <leafValues>
        2.2348169982433319e-01 -7.9293036460876465e-01</leafValues></_>
    <_>
      <internalNodes>
        0 -1 123863 2.3820325732231140e-03</internalNodes>
      <leafValues>
        -5.5520266294479370e-01 3.6578235030174255e-01</leafValues></_>
    <_>
      <internalNodes>
        0 -1 109218 -6.3362279906868935e-03</internalNodes>
      <leafValues>
        5.9105646610260010e-01 -4.1790977120399475e-01</leafValues></_>
    <_>
      <internalNodes>
        0 -1 109263 3.8831504061818123e-03</internalNodes>
      <leafValues>
        -3.5434421896934509e-01 6.0641831159591675e-01</leafValues></_></weakClassifiers></stage8>
</opencv_storage>
