<?xml version="1.0"?>
<opencv_storage>
<stage9>
  <maxWeakCount>6</maxWeakCount>
  <stageThreshold>-2.4911773204803467e+00</stageThreshold>
  <weakClassifiers>
    <_>
      <internalNodes>
        0 -1 32792 -2.9664769768714905e-01</internalNodes>
      <leafValues>
        1. -9.4944304227828979e-01</leafValues></_>
    <_>
      <internalNodes>
        0 -1 47583 1.6261242330074310e-02</internalNodes>
      <leafValues>
        -7.9059070348739624e-01 1.4372204244136810e-01</leafValues></_>
    <_>
      <internalNodes>
        0 -1 105948 1.1619647964835167e-02</internalNodes>
      <leafValues>
        -5.4692375659942627e-01 3.1632408499717712e-01</leafValues></_>
    <_>
      <internalNodes>
        0 -1 33123 -1.9909113645553589e-01</internalNodes>
      <leafValues>
        4.2258739471435547e-01 -5.0272399187088013e-01</leafValues></_>
    <_>
      <internalNodes>
        0 -1 96 1.3160516391508281e-04</internalNodes>
      <leafValues>
        2.1745195984840393e-01 -9.4838380813598633e-01</leafValues></_>
    <_>
      <internalNodes>
        0 -1 11 -1.3504864182323217e-03</internalNodes>
      <leafValues>
        -7.8219562768936157e-01 2.8833183646202087e-01</leafValues></_></weakClassifiers></stage9>
</opencv_storage>
