<?xml version="1.0"?>
<opencv_storage>
<stage13>
  <maxWeakCount>6</maxWeakCount>
  <stageThreshold>-2.4025757312774658e+00</stageThreshold>
  <weakClassifiers>
    <_>
      <internalNodes>
        0 -1 69273 2.4195374920964241e-02</internalNodes>
      <leafValues>
        -9.5025730133056641e-01 6.6666668653488159e-01</leafValues></_>
    <_>
      <internalNodes>
        0 -1 100648 -3.0642066150903702e-02</internalNodes>
      <leafValues>
        7.4485026299953461e-02 -7.8928220272064209e-01</leafValues></_>
    <_>
      <internalNodes>
        0 -1 106472 -2.4556159041821957e-03</internalNodes>
      <leafValues>
        1.5730243921279907e-01 -6.5079218149185181e-01</leafValues></_>
    <_>
      <internalNodes>
        0 -1 90069 3.9117955602705479e-03</internalNodes>
      <leafValues>
        1.6249980032444000e-01 -9.3164998292922974e-01</leafValues></_>
    <_>
      <internalNodes>
        0 -1 140858 -1.6778854187577963e-03</internalNodes>
      <leafValues>
        3.5722738504409790e-01 -5.3096050024032593e-01</leafValues></_>
    <_>
      <internalNodes>
        0 -1 17290 -1.0763479396700859e-02</internalNodes>
      <leafValues>
        4.3269518017768860e-01 -4.5187795162200928e-01</leafValues></_></weakClassifiers></stage13>
</opencv_storage>
